digraph Tree {
node [shape=box, style="filled, rounded", color="black", fontname=helvetica] ;
edge [fontname=helvetica] ;
0 [label="sex <= 0.5\ngini = 0.36\nsamples = 15431\nvalue = [18601, 5819]\nclass = 0", fillcolor="#eda877"] ;
1 [label="marital.status <= 0.5\ngini = 0.21\nsamples = 5096\nvalue = [7142, 938]\nclass = 0", fillcolor="#e89253"] ;
0 -> 1 [labeldistance=2.5, labelangle=45, headlabel="True"] ;
2 [label="capital.loss <= 2391.5\ngini = 0.1\nsamples = 4179\nvalue = [6285, 331]\nclass = 0", fillcolor="#e68843"] ;
1 -> 2 ;
3 [label="gini = 0.09\nsamples = 4165\nvalue = [6280, 316]\nclass = 0", fillcolor="#e68743"] ;
2 -> 3 ;
4 [label="gini = 0.38\nsamples = 14\nvalue = [5, 15]\nclass = 1", fillcolor="#7bbeee"] ;
2 -> 4 ;
5 [label="age_hours <= 1222.5\ngini = 0.49\nsamples = 917\nvalue = [857, 607]\nclass = 0", fillcolor="#f7dac5"] ;
1 -> 5 ;
6 [label="gini = 0.41\nsamples = 359\nvalue = [424, 169]\nclass = 0", fillcolor="#efb388"] ;
5 -> 6 ;
7 [label="gini = 0.5\nsamples = 558\nvalue = [433, 438]\nclass = 1", fillcolor="#fdfeff"] ;
5 -> 7 ;
8 [label="relationship <= 0.5\ngini = 0.42\nsamples = 10335\nvalue = [11459, 4881]\nclass = 0", fillcolor="#f0b78d"] ;
0 -> 8 [labeldistance=2.5, labelangle=-45, headlabel="False"] ;
9 [label="capital.loss <= 1782.5\ngini = 0.49\nsamples = 6277\nvalue = [5614, 4349]\nclass = 0", fillcolor="#f9e3d2"] ;
8 -> 9 ;
10 [label="gini = 0.49\nsamples = 5969\nvalue = [5534, 3943]\nclass = 0", fillcolor="#f8dbc6"] ;
9 -> 10 ;
11 [label="gini = 0.28\nsamples = 308\nvalue = [80, 406]\nclass = 1", fillcolor="#60b0ea"] ;
9 -> 11 ;
12 [label="education.num <= 13.5\ngini = 0.15\nsamples = 4058\nvalue = [5845, 532]\nclass = 0", fillcolor="#e78c4b"] ;
8 -> 12 ;
13 [label="gini = 0.12\nsamples = 3845\nvalue = [5640, 389]\nclass = 0", fillcolor="#e78a47"] ;
12 -> 13 ;
14 [label="gini = 0.48\nsamples = 213\nvalue = [205, 143]\nclass = 0", fillcolor="#f7d9c3"] ;
12 -> 14 ;
}